#ifndef GESTURE_MODEL_PARAMS_H
#define GESTURE_MODEL_PARAMS_H

#define GESTURE_NUM_FEATURES 60
#define GESTURE_NUM_CLASSES 9

static const char *GESTURE_LABELS[GESTURE_NUM_CLASSES] = {
    "backward",
    "clockwise",
    "counterclockwise",
    "down",
    "forward",
    "left",
    "none",
    "right",
    "up",
};

static const float GESTURE_FEATURE_MEAN[GESTURE_NUM_FEATURES] = {-0.0417752851f, 1.791886f, -4.05389739f, 4.15345107f, 8.20734846f, 17.1938552f, 6.04874375f, 2.93492657f, 25.1204188f, 0.12987594f, -0.95189218f, 1.73111556f, -4.28861693f, 2.14258488f, 6.43120181f, 15.5431146f, 5.36536837f, 2.8900879f, 18.4240838f, 0.0699709071f, 5.74464642f, 2.33846035f, 1.88181743f, 11.29412f, 9.41230258f, 53.7620198f, 11.3450877f, 7.11102374f, 28.3560209f, 0.157492167f, -1.17240256f, 27.8039292f, -69.2010382f, 58.1789219f, 127.37996f, 2117.15247f, 108.688437f, 30.225174f, 17.9790576f, 1.22782858f, 3.1516942f, 31.5710276f, -61.1943281f, 82.0459912f, 143.240319f, 2623.70326f, 115.074451f, 34.9849518f, 20.2460733f, 1.82459721f, 1.83812456f, 21.4902604f, -38.8250298f, 53.8857333f, 92.7107631f, 1075.41306f, 74.5963186f, 24.922017f, 14.5078534f, 0.875849621f};
static const float GESTURE_FEATURE_SCALE[GESTURE_NUM_FEATURES] = {3.48805796f, 1.34711036f, 3.30394078f, 4.10363853f, 4.5508546f, 28.1361592f, 4.18475198f, 2.92917416f, 21.6538971f, 0.0411721838f, 3.03269815f, 1.56300888f, 3.94410923f, 3.21175803f, 4.38796324f, 24.5633283f, 4.07593633f, 2.68151199f, 20.9747604f, 0.0171824143f, 3.41333637f, 1.90834884f, 5.11961064f, 2.37474043f, 6.12220003f, 23.8795745f, 2.38812347f, 1.78755733f, 25.6212639f, 0.0534586386f, 18.6438338f, 31.5456323f, 109.239776f, 92.084178f, 125.656652f, 3637.05558f, 127.68646f, 34.6928137f, 11.8467342f, 0.535024531f, 22.9651099f, 33.0097565f, 66.7450869f, 104.567207f, 115.770493f, 4769.5108f, 106.734825f, 37.4133186f, 16.5920303f, 0.866104487f, 18.2982319f, 16.5945103f, 44.7475763f, 40.5447234f, 45.4798739f, 1635.38837f, 44.5053193f, 21.3144582f, 12.3546498f, 0.318623288f};

static const float GESTURE_WEIGHT[GESTURE_NUM_CLASSES][GESTURE_NUM_FEATURES] = {
    {-0.339282768f, -0.0584649936f, 0.220880091f, -0.149350336f, -0.295033494f, 0.181066442f, -0.431528695f, 0.229836975f, 0.37053081f, 0.43243935f, 0.19262305f, -0.304970083f, 0.170942791f, 0.591293327f, 0.2791441f, -0.420260389f, -0.440789292f, -1.03380596f, -0.0876989203f, 0.540133931f, 0.307802905f, -0.396860003f, -0.136910102f, 0.215994953f, 0.198271595f, 0.149516171f, 0.147328223f, 0.0102767621f, -0.110407142f, -0.415233924f, -0.0590242791f, 0.0857651829f, -0.481137048f, -0.283667742f, 0.21039867f, -0.320623016f, 0.0912628084f, -0.0149972911f, -0.0558968395f, -0.485476739f, 0.0646961222f, -0.104037207f, -0.241975224f, 0.0174270204f, 0.155246399f, -0.315471046f, -0.105666791f, -0.109116884f, -0.736767148f, -0.0227262754f, -0.0630076322f, -0.312455761f, 0.237978691f, 0.48551941f, 0.198687458f, -0.308964424f, -0.239288419f, -0.465436338f, -0.129649851f, -0.00838506348f},
    {-0.136690603f, 0.0054088294f, -0.0674022878f, -0.0765388541f, -0.0200829584f, 0.0854026238f, -0.0172449911f, 0.0724507517f, -0.00728680073f, -0.0311274835f, 0.00472428935f, -0.0239811357f, -0.0344664683f, 0.0106480845f, 0.0387739316f, -0.0663738239f, -0.0181214932f, -0.0637563118f, 0.0133362569f, 0.0280698426f, -0.112595784f, 0.0991607449f, -0.0652304517f, -0.00889560496f, 0.0510976054f, -0.0161066176f, 0.00641591709f, -0.0258766537f, -0.0536830036f, -0.012394698f, -0.0629737823f, -0.0493541179f, -0.0353780388f, -0.0867150188f, -0.03279088f, -0.0311966534f, -0.0387922598f, -0.0508365647f, 0.0287756836f, 0.018811222f, 0.177632396f, 0.0518617849f, 0.146940304f, 0.0951140044f, 0.00119428033f, 0.0874483596f, 0.0620290771f, 0.077635481f, 0.0193052347f, 0.0368073897f, 0.0469130438f, -0.0105142774f, -0.0139940191f, 0.0336459479f, 0.0437636238f, -0.00462246156f, 0.00315602419f, -0.0282658949f, -0.00661781693f, -0.0939787603f},
    {0.192010044f, 0.0335467884f, 0.0308160612f, 0.0438419101f, 0.0171609328f, 0.116807279f, -0.0212158838f, 0.055445272f, -0.00789356221f, 0.0248202593f, 0.0346210771f, -0.00784323075f, -0.0186175373f, -0.040547202f, -0.0129440922f, -0.0499586271f, -0.0277466816f, -0.0378979165f, 0.0106851723f, -0.0224656125f, -0.0523020529f, 0.017762965f, -0.0227711016f, -0.0158376906f, 0.0128987569f, -0.0277040804f, 0.00111136055f, -0.0349217315f, -0.0905794676f, 0.00860699527f, 0.0467460603f, -0.00640958844f, 0.0183610755f, 0.0351484522f, 0.00979539507f, 0.00190619935f, 0.0302476994f, -0.00895404723f, -0.021419926f, -0.0352827099f, -0.192462244f, 0.0395306958f, -0.0711237959f, -0.0857880769f, -0.036481279f, 0.0591484876f, -0.00119960866f, 0.0409708383f, -0.00594682022f, -0.0233697371f, 0.00632818602f, -0.0064785715f, -0.0113444839f, -0.0259077382f, -0.011934596f, 0.0109659276f, -0.0116066906f, -0.0102523489f, 0.00276166111f, 0.036276093f},
    {-0.0262522195f, -0.0370909879f, 0.0409372136f, 0.0131230493f, -0.0178871631f, -0.0462872959f, 0.0327292043f, -0.0671452327f, -0.0165993082f, 0.00041674944f, -0.0865957072f, 0.0258832947f, -0.0469507671f, -0.0671473323f, -0.0069467377f, 0.105793254f, 0.0270541451f, 0.0081654059f, 0.0185414866f, -0.0123182011f, -0.0396351726f, 0.0448822275f, -0.0249926349f, -0.0390811283f, 0.00574058739f, -0.0512842885f, -0.0518812831f, -0.0650999806f, 0.0123054841f, -0.0432892591f, -0.164967217f, 0.0646090936f, -0.164696088f, -0.120282177f, 0.0550331254f, 0.128181641f, 0.0650775611f, 0.0717527075f, 0.00870082411f, 0.054149907f, -0.0138051893f, -0.0251236993f, -0.0219947004f, 0.000522671774f, 0.0131526823f, -0.0180766046f, -0.00523528676f, -0.0314989518f, -0.0354862807f, -0.0135734511f, -0.0192059039f, -0.00304789884f, -0.00169964818f, 0.0217685585f, 0.0210786715f, -0.0179043445f, -0.00324306828f, 0.0118377133f, -0.0100255683f, -0.0273644575f},
    {0.240393852f, -0.16343936f, -0.364814905f, 0.0245182276f, 0.286966054f, -0.0563256053f, -0.00112223599f, -0.250445071f, -0.449671815f, -0.0945510936f, -0.14090915f, 0.115124081f, -0.321637882f, -0.230953287f, 0.12005772f, -0.11803161f, 0.419807593f, 0.28302801f, -0.462142855f, -0.162810114f, 0.0129427522f, -0.228825226f, 0.296169883f, -0.213611919f, -0.330526172f, 0.207321217f, -0.172906484f, 0.214627539f, -0.39288647f, 0.45975821f, 0.0571876642f, -0.123871805f, 0.192376592f, 0.158859097f, -0.0508271252f, -0.1137909f, -0.108817038f, -0.10850005f, -0.0114560588f, 0.282286386f, -0.111044792f, 0.214821969f, 0.19271884f, 0.00318025527f, -0.10823557f, 0.200288878f, -0.104039373f, 0.0846203211f, 0.558652121f, 0.279766598f, 0.234224513f, -0.0282391347f, -0.161770243f, -0.366398395f, -0.167473975f, -0.115324547f, -0.0797495531f, -0.0722206095f, 0.0427695857f, 0.282355981f},
    {0.0539345045f, -0.0671838769f, -0.0305787313f, 0.0337022812f, 0.052590627f, -0.0278347064f, -0.00174918131f, -0.0277561886f, -0.00262842925f, -0.00273606689f, 0.0566644327f, -0.0324037865f, -0.0380857154f, -0.120168167f, -0.0537235253f, 0.0112855144f, -0.00511663809f, -0.0149950248f, -0.0478160656f, -0.028266001f, -0.00371572152f, -0.0191643405f, -0.010735719f, 0.0116864282f, 0.0135106554f, 0.0368556025f, 0.0048764471f, 0.0277174594f, 0.00632693258f, 0.0420650005f, -0.0093821239f, -0.00202228704f, 1.08199631e-05f, -0.0107058083f, -0.00785487686f, 0.0166262505f, -0.0050269087f, -0.00109774492f, 0.039870191f, -0.0313119344f, -0.0864814653f, -0.0341848769f, 0.0121071577f, -0.00817651936f, -0.0143653969f, -0.0182026803f, -0.043948805f, -0.0325799754f, -0.0253553512f, 0.0576449603f, 0.405361341f, 0.113870746f, 0.134019724f, 0.129539396f, -0.0163790884f, 0.134754528f, 0.0262835144f, 0.185479447f, -0.0267618844f, -0.115639934f},
    {0.0200020682f, 0.0341750497f, -0.0276497408f, 0.0344395063f, 0.0511289442f, -0.0492161016f, 0.0919248784f, -0.01258051f, 0.114422177f, -0.201341521f, 0.0427384154f, -0.0252089153f, 0.0401383945f, -0.189434133f, -0.174734101f, 0.0577465974f, 0.0650132509f, 0.143566116f, 0.22919919f, -0.226618631f, -0.00879912205f, 0.13023043f, -0.0900917852f, 0.0110301882f, 0.079616591f, 0.00759869347f, 0.0199708849f, 0.0439984281f, 0.110843278f, 0.0379600276f, 0.0788229578f, 0.00314510722f, 0.0467339579f, 0.0973206621f, 0.030690664f, 0.0523325296f, 0.0301417276f, 0.0125946675f, 0.0702817891f, -0.0354670999f, 0.00351257519f, -0.0317960924f, 0.0519751611f, 0.0310300821f, -0.00193795177f, 0.0427583573f, 0.00860025621f, -0.0198906198f, 0.147072055f, -0.106079305f, 0.00183077432f, -0.0693252973f, 0.0363364819f, -0.0106632137f, -0.0452575254f, 0.0361586412f, 0.0441385032f, -0.0746891272f, 0.143214649f, -0.118200666f},
    {-0.0174248696f, 0.0392065951f, 0.0595541347f, 0.0256848204f, -0.0200758151f, -0.0620102386f, -0.0360992726f, -0.0330603327f, -0.0238753336f, 0.0566439584f, -0.0122454563f, -0.0596147672f, 0.0863835371f, -0.0606984603f, -0.122073692f, 0.0543813565f, -0.0593598802f, 0.0139002773f, -0.0420903661f, -0.00559855068f, 0.0169103915f, -0.0758826008f, 0.017590114f, -0.0134153263f, -0.0199131769f, 0.00105819748f, 0.00412370491f, -0.00908169154f, -0.0511566032f, -0.0345528707f, 0.0312338465f, 0.039402601f, 0.0251971968f, 0.0540706634f, 0.0177190497f, 0.052197044f, 0.00958297825f, 0.044463333f, 0.0543905869f, 0.0241222197f, 0.113436085f, 0.00742147405f, 0.0015484687f, 0.0197648075f, 0.0169593995f, -0.00941902668f, -0.00544421332f, -0.000412544396f, -0.13012554f, -0.0659441324f, -0.414414768f, 0.118141763f, -0.161470033f, -0.211093593f, -0.0293171162f, 0.0936975108f, 0.0791207905f, 0.208007205f, -0.0694019426f, -0.0570793985f},
    {0.0346317761f, -0.022454684f, -0.0564307437f, -0.0223390985f, 0.0208251545f, -0.0332896587f, -0.00942802797f, -0.0154697404f, 0.00449945542f, 0.00761254928f, 0.13064374f, 0.0962445578f, 0.0597307682f, 0.0505674671f, -0.0166761209f, 0.0718858008f, 0.0688508713f, 0.112800073f, 0.0577908724f, -0.0359367624f, 0.00485394933f, 0.0339380972f, 0.00636534094f, 0.0149377131f, 0.000471256086f, -0.0223223086f, 0.0207321903f, -0.0062955456f, -0.0291481525f, 0.0233541181f, 0.196249095f, 0.0470552139f, 0.112764163f, 0.120188023f, -0.00995503641f, 0.0613748233f, 0.0273982354f, 0.0585888313f, 0.0311364643f, -0.0546641335f, -0.00994393043f, -0.0122705138f, 0.0220351005f, -0.000196277025f, -0.0128811651f, -0.0112676185f, 0.0158656212f, -0.0199894236f, -0.0596506189f, -0.00635497449f, -0.00288731685f, 0.00549603975f, 0.0316520146f, 0.00667790945f, -0.0251890968f, 0.0177344817f, -0.0183499776f, 0.0239932064f, -0.0367840351f, 0.00481627317f},
};

static const float GESTURE_BIAS[GESTURE_NUM_CLASSES] = {-1.96059976f, -0.715665095f, -0.801400001f, -0.739222772f, -1.85021919f, -0.870003691f, -1.19293041f, -0.81927681f, -0.795651725f};

#endif