#ifndef GESTURE_MODEL_PARAMS_H
#define GESTURE_MODEL_PARAMS_H

#define GESTURE_NUM_FEATURES 60
#define GESTURE_NUM_CLASSES 9

static const char *GESTURE_LABELS[GESTURE_NUM_CLASSES] = {
    "backward",
    "clockwise",
    "counterclockwise",
    "down",
    "forward",
    "left",
    "none",
    "right",
    "up",
};

static const float GESTURE_FEATURE_MEAN[GESTURE_NUM_FEATURES] = {0.0321470088f, 1.73807618f, -3.58725372f, 4.05303249f, 7.6402862f, 17.2012804f, 5.80309365f, 2.93690593f, 25.9947644f, 0.132788827f, -0.577317818f, 1.6425799f, -3.65861598f, 2.18417632f, 5.84279231f, 14.8649828f, 4.84957462f, 2.69204297f, 19.1204188f, 0.0686995632f, 6.2961196f, 2.3359336f, 2.44791451f, 11.9084866f, 9.46057206f, 64.4933605f, 11.9594542f, 7.66055246f, 30.0942408f, 0.16372639f, -0.433742397f, 27.4428112f, -67.2431629f, 57.9979539f, 125.241117f, 2108.43977f, 106.934291f, 29.8546439f, 18.3036649f, 1.21827028f, 2.98566919f, 31.1690932f, -60.3345703f, 80.0849985f, 140.419569f, 2621.63908f, 113.64095f, 34.625704f, 20.6335079f, 1.81127245f, 1.94581969f, 20.4896301f, -33.4114173f, 49.452737f, 82.8641543f, 1049.98875f, 68.1767511f, 23.9889168f, 13.4554974f, 0.78195927f};
static const float GESTURE_FEATURE_SCALE[GESTURE_NUM_FEATURES] = {3.50490837f, 1.37657383f, 3.20766093f, 4.11857422f, 4.44720381f, 28.1338262f, 4.15035465f, 2.92845761f, 22.4547241f, 0.0511727862f, 3.05221233f, 1.58670038f, 3.87839254f, 3.17666093f, 4.26232431f, 24.8738881f, 4.09222474f, 2.76005207f, 21.4876356f, 0.0182555427f, 3.96688184f, 1.91298228f, 5.60265733f, 2.64448279f, 6.14141211f, 37.1084245f, 2.64469378f, 2.41024823f, 26.8907333f, 0.0583415947f, 18.6528084f, 31.7366742f, 109.946414f, 91.9184243f, 126.793758f, 3641.58137f, 128.582459f, 34.8875337f, 12.0275398f, 0.557472342f, 23.0026943f, 33.3479915f, 67.4460033f, 105.719225f, 118.468482f, 4771.83415f, 107.887241f, 37.7186916f, 17.1296787f, 0.944551197f, 18.2840488f, 17.0900893f, 41.9314253f, 42.1298561f, 45.9529726f, 1647.66208f, 45.9392969f, 21.7834942f, 12.3108456f, 0.300311836f};

static const float GESTURE_WEIGHT[GESTURE_NUM_CLASSES][GESTURE_NUM_FEATURES] = {
    {0.182820046f, -0.0628275476f, 0.267414999f, 0.272170408f, 0.0591781696f, 0.183629748f, -0.0947490864f, 0.0506609381f, 0.0572999655f, 0.822031117f, 0.0151267817f, 0.325467736f, -0.195871557f, 0.128809698f, 0.274228669f, 0.16973846f, -0.437509927f, -0.0831372851f, 0.0307273788f, -0.532799737f, 0.0439636065f, 0.194017165f, 0.163607816f, 0.0743946471f, -0.117221113f, 0.625324387f, 0.0665020738f, 0.362574455f, -0.126231468f, 0.364132303f, -0.0649354683f, 0.0233763624f, -0.0664159227f, -0.125084246f, -0.0330880188f, 0.116250473f, 0.0849693253f, 0.0674562305f, 0.0644053253f, -0.406905249f, -0.104517163f, 0.0755426487f, 0.101318635f, -0.0677009347f, -0.118097464f, 0.275616019f, 0.194446268f, 0.0841341107f, -0.117258151f, -0.629151349f, 0.13756862f, -0.0786071741f, -0.266499336f, -0.0745211793f, 0.17485551f, -0.0889295495f, -0.0948023678f, -0.20340619f, -0.205348411f, -0.526712926f},
    {-0.136504199f, -0.00223372035f, -0.0562655626f, -0.0672942365f, -0.0217384821f, 0.099690865f, -0.0186415044f, 0.0805133641f, 0.0332004632f, 0.0617239915f, 0.0146324236f, -0.0242860983f, -0.000407746469f, 0.0157245943f, 0.0120903764f, -0.0392944926f, -0.0419493882f, -0.0659452932f, 0.0217025868f, -0.00480870846f, -0.12095298f, 0.131376557f, -0.0658558766f, -0.00482459005f, 0.058001215f, 0.0128648643f, 0.00909323709f, -0.0136770708f, -0.0394347061f, 0.00720447536f, -0.0995513466f, -0.039753785f, -0.0646576139f, -0.107478016f, -0.0218491595f, -0.018815106f, -0.0181416799f, -0.037345496f, 0.0374124991f, -0.00989903608f, 0.193393163f, 0.0379863284f, 0.143200465f, 0.110409022f, 0.017000785f, 0.0866751279f, 0.0862931271f, 0.0749046254f, 0.00134792257f, -0.0245092863f, 0.0320160927f, -0.00273208687f, -0.00512056845f, 0.0308947261f, 0.0329968447f, 0.0167477326f, -0.0016790265f, -0.0287364105f, -0.0338178425f, -0.0770071916f},
    {0.186060847f, 0.0546798067f, 0.0221955313f, 0.0419389118f, 0.0228307014f, 0.134572364f, -0.0212565682f, 0.0408751949f, 0.00150135059f, -0.0558171152f, 0.00859305305f, -0.00402752605f, -0.0164218158f, 0.0118480465f, 0.0237728213f, -0.0484478862f, -0.0134413283f, -0.0267670721f, 0.000391050275f, 0.00108252095f, -0.0451552803f, 0.0177436733f, -0.0147076825f, -0.0202413954f, 0.00470153814f, -0.0358029942f, -0.00456379215f, -0.0524551702f, -0.0295364964f, -0.0275323409f, 0.0562448404f, -0.0114020379f, 0.0127598711f, 0.033446421f, 0.0131823543f, -0.0180935622f, 0.0143681052f, -0.0198697256f, -0.0393181108f, -0.0104605297f, -0.21242922f, 0.0652436061f, -0.0361619602f, -0.0636299382f, -0.0361946737f, 0.0715004744f, -0.0350955585f, 0.0678517424f, 0.0250129456f, 0.0117464482f, 0.0134447598f, -0.0109581432f, -0.0129668172f, -0.0302147844f, -0.0158689928f, -0.0164520929f, -0.004576644f, -0.00770197593f, -0.0170928691f, 0.0760063393f},
    {-0.0270466849f, -0.0289756184f, 0.0584528849f, 0.0137300095f, -0.0294452374f, -0.021112281f, 0.0213486461f, -0.0285817606f, -0.0204267266f, -0.000786659194f, -0.131399337f, 0.0277039518f, -0.077114715f, -0.0488420039f, 0.0337671746f, 0.110874407f, 0.071935944f, 0.030682615f, -0.0307301766f, -0.0116567181f, 0.0011571841f, 0.0374402741f, 0.0033893409f, -0.015640878f, -0.00982694976f, -0.00389094017f, -0.0442233413f, -0.030547642f, -0.058516237f, -0.0171874346f, -0.201134816f, 0.0720240203f, -0.182214606f, -0.170694476f, 0.0342593772f, 0.101144102f, 0.0540082091f, 0.0773077032f, 0.0164946699f, 0.0542551658f, -0.0258516792f, -0.0157245764f, -0.0251701207f, 0.00836861507f, 0.02179776f, -0.016531094f, 0.00436689917f, -0.0263448749f, 0.022866545f, -0.000921948053f, 0.0191792516f, -0.0123662076f, -0.0060306455f, -0.0147662478f, -0.00803487375f, -0.0355916866f, 0.0245708974f, -0.014119777f, -0.0280203558f, -0.0339253565f},
    {-0.199575924f, -0.343179892f, -0.186228461f, -0.300537603f, -0.144007041f, 0.0249172932f, -0.107380371f, -0.0235943338f, -0.0587934561f, -0.726410101f, 0.0344822219f, -0.113188122f, 0.232582567f, 0.122653083f, -0.120220611f, -0.0531593178f, 0.34422736f, 0.00943118739f, -0.139538598f, 0.580300618f, 0.027758201f, -0.257202831f, -0.0114526582f, 0.0326759226f, 0.0245181779f, 0.0800150732f, 0.0605646928f, 0.0591524991f, -0.0132375978f, -0.347917131f, -0.112307553f, -0.0238000678f, -0.0685115135f, -0.0295175863f, 0.0380096409f, -0.162311252f, -0.0997930276f, -0.053594151f, 0.0505698434f, 0.194932958f, -0.204453038f, 0.0238901419f, -0.28170148f, -0.0931861791f, 0.0772194272f, -0.215337203f, -0.184736055f, -0.0459494563f, 0.133640768f, 0.815494735f, 0.0126617789f, -0.0638005627f, 0.268785022f, 0.105462697f, -0.148573867f, 0.0054739143f, 0.0510307788f, -0.114942719f, 0.235240315f, 0.626510451f},
    {-0.00493682531f, -0.0377723406f, 0.0309607876f, 0.0542301578f, 0.027891508f, -0.0531023747f, -0.0310325676f, -0.0572807393f, -0.0136799085f, -0.000152339168f, 0.046581864f, -0.0325082824f, -0.0171373525f, -0.0298479047f, -0.00665160383f, -0.0235915738f, -0.0278320446f, -0.0345484254f, -0.0298194566f, -0.0358875792f, -0.0208069429f, -0.0464913463f, 0.00825415044f, 0.0344362032f, 0.00729812125f, -0.0413465687f, 0.0271683066f, -0.0182212253f, 0.0594448147f, 0.0110979619f, -0.0312296607f, -0.0246986257f, -0.0371922051f, -0.0448784094f, -0.000283950021f, -0.000763956639f, -0.0086603876f, -0.0272619737f, 0.0411190658f, -0.0388648273f, -0.0399338184f, -0.0513340852f, -0.00767794665f, 0.0226337725f, 0.0245691651f, -0.0304036216f, -0.0151741609f, -0.0405511656f, -0.0522406089f, -0.0220691188f, 0.345999483f, 0.115757125f, 0.171039887f, 0.191353143f, 0.0193618407f, 0.123950036f, 0.0717813307f, 0.170143098f, 0.00865801212f, -0.0371164871f},
    {-0.010832195f, -0.0536647468f, 0.0425081583f, 0.0667287483f, 0.0311376652f, -0.197082667f, -0.000864151334f, -0.153428712f, 0.0274499178f, -0.153513369f, -0.00177156445f, 0.0174553406f, -0.056900822f, -0.120785831f, -0.038244839f, -0.146189984f, 0.0246256449f, 0.101288854f, 0.318699599f, -0.071267837f, -0.0825783584f, -0.0116790152f, -0.110211564f, -0.0561380001f, 0.0763703272f, -0.349446124f, -0.0328077857f, -0.14894054f, 0.0760700443f, -0.04418313f, 0.0799469178f, -0.068290202f, 0.127111942f, 0.157007875f, 0.0035996592f, -0.0414113673f, 0.00290615048f, -0.103907292f, 0.00801215639f, 0.0105609487f, 0.121564199f, -0.0559092479f, 0.0917782777f, 0.030659585f, -0.0248907592f, 0.0180714972f, -0.0694156054f, -0.0597756504f, 0.112493674f, -0.0670312188f, 0.0406885624f, -0.0430891355f, 0.0146355072f, 0.0234387293f, 0.00813402472f, -0.00727478028f, -0.0488335749f, -0.0509133406f, 0.138314078f, 0.0552835969f},
    {0.000273136389f, -0.0148587285f, -0.013158908f, -0.0035828602f, 0.00617310127f, -0.122949511f, 0.00939176862f, -0.0865166819f, -0.123743596f, -0.0363449276f, -0.0438113009f, -0.069227167f, -0.0111221749f, -0.0631607393f, -0.03695263f, -0.00739057885f, 0.00933392091f, 0.0305282985f, -0.0617584991f, 0.0654382053f, -0.0213969885f, -0.124666372f, -0.00563833074f, -0.0422402561f, -0.0130448818f, -0.102882788f, -0.025938682f, -0.0497541878f, 0.0328507928f, -0.0237300096f, 0.0701022262f, -0.0049446883f, 0.0674790383f, 0.105086694f, 0.0176690483f, -0.0238023084f, -0.00570944696f, -0.00515149893f, 0.0140810519f, 0.00551181264f, 0.138478801f, 0.0242455807f, 0.00110110982f, 0.027948472f, 0.0243138537f, -0.00352095342f, 0.0136285418f, -0.000744456605f, -0.0261496446f, -0.0432346181f, -0.37344796f, 0.0981998331f, -0.160703812f, -0.218945027f, -0.0540897023f, 0.0770980936f, 0.0983812043f, 0.197469305f, 0.0176593478f, 0.0519778233f},
    {-0.000911911171f, -0.0296302697f, -0.00958959687f, -0.0258321594f, -0.0170065267f, -0.0593443028f, -0.0108325399f, -0.035046798f, 0.0310656731f, 0.000974723115f, 0.100963814f, 0.0919922295f, 0.0377444479f, 0.0297532303f, -0.0121698531f, 0.0287996026f, -0.0500433011f, 0.0173345157f, 0.0348901047f, 0.012629239f, -0.0128202621f, 0.0211812358f, -0.0098370954f, 0.0170942492f, 0.0163348951f, -0.0868902439f, 0.0177991689f, -0.0506287651f, -0.0146611182f, -0.00815136494f, 0.204059433f, 0.0584624941f, 0.122575351f, 0.179933537f, 0.024153294f, 0.0641623011f, 0.0638253499f, 0.0627668638f, -0.00736896974f, -0.0390967555f, 0.0310512952f, -0.0258803454f, 0.0173453531f, 0.0188229757f, 0.00692231088f, -0.0426525422f, -0.00539998132f, -0.0288008712f, -0.0583705143f, 0.00780690916f, -0.0188374694f, 0.0200666651f, 0.0243055352f, 0.0136813602f, -0.0096353287f, 0.0234043517f, -0.00197439656f, 0.0329944276f, 0.0184254951f, 0.0385021559f},
};

static const float GESTURE_BIAS[GESTURE_NUM_CLASSES] = {-1.4459909f, -0.723990983f, -0.82399888f, -0.676271548f, -1.4455066f, -0.85289725f, -1.21060273f, -0.846224406f, -0.77081151f};

#endif